<?xml version="1.0"?>
<opencv_storage>
<cascade>
  <stageType>BOOST</stageType>
  <featureType>HAAR</featureType>
  <height>20</height>
  <width>20</width>
  <stageParams>
    <boostType>GAB</boostType>
    <minHitRate>9.9500000476837158e-01</minHitRate>
    <maxFalseAlarm>5.0000000000000000e-01</maxFalseAlarm>
    <weightTrimRate>9.4999999999999996e-01</weightTrimRate>
    <maxDepth>1</maxDepth>
    <maxWeakCount>100</maxWeakCount></stageParams>
  <featureParams>
    <maxCatCount>0</maxCatCount>
    <featSize>1</featSize>
    <mode>BASIC</mode></featureParams>
  <stageNum>22</stageNum>
  <stages>
    <!-- stage 0 -->
    <_>
      <maxWeakCount>2</maxWeakCount>
      <stageThreshold>-3.6081485450267792e-02</stageThreshold>
      <weakClassifiers>
        <_>
          <internalNodes>
            0 -1 44 4.5162156224250793e-02</internalNodes>
          <leafValues>
            -9.0243899822235107e-01 9.7468352317810059e-01</leafValues></_>
        <_>
          <internalNodes>
            0 -1 41 1.3159562367945910e-03</internalNodes>
          <leafValues>
            -9.5401930809020996e-01 8.6635756492614746e-01</leafValues></_></weakClassifiers></_>
    <!-- stage 1 -->
    <_>
      <maxWeakCount>2</maxWeakCount>
      <stageThreshold>5.1858674734830856e-02</stageThreshold>
      <weakClassifiers>
        <_>
          <internalNodes>
            0 -1 32 3.5939007997512817e-02</internalNodes>
          <leafValues>
            -8.1395345926284790e-01 9.7402596473693848e-01</leafValues></_>
        <_>
          <internalNodes>
            0 -1 55 -6.0688704252243042e-04</internalNodes>
          <leafValues>
            8.6581218242645264e-01 -9.1621929407119751e-01</leafValues></_></weakClassifiers></_>
    <!-- stage 2 -->
    <_>
      <maxWeakCount>3</maxWeakCount>
      <stageThreshold>-6.4279484748840332e-01</stageThreshold>
      <weakClassifiers>
        <_>
          <internalNodes>
            0 -1 37 -6.3815392786636949e-04</internalNodes>
          <leafValues>
            8.9999997615814209e-01 -8.0000001192092896e-01</leafValues></_>
        <_>
          <internalNodes>
            0 -1 40 3.6070354282855988e-02</internalNodes>
          <leafValues>
            -7.0090675354003906e-01 9.0373343229293823e-01</leafValues></_>
        <_>
          <internalNodes>
            0 -1 7 -3.9823325350880623e-03</internalNodes>
          <leafValues>
            8.5811191797256470e-01 -7.0814859867095947e-01</leafValues></_></weakClassifiers></_>
    <!-- stage 3 -->
    <_>
      <maxWeakCount>3</maxWeakCount>
      <stageThreshold>-6.6189986467361450e-01</stageThreshold>
      <weakClassifiers>
        <_>
          <internalNodes>
            0 -1 15 3.0180471949279308e-03</internalNodes>
          <leafValues>
            -7.5000000000000000e-01 8.7500000000000000e-01</leafValues></_>
        <_>
          <internalNodes>
            0 -1 12 1.0052688419818878e-02</internalNodes>
          <leafValues>
            -6.5513175725936890e-01 8.7812912464141846e-01</leafValues></_>
        <_>
          <internalNodes>
            0 -1 23 -1.5332290204241872e-03</internalNodes>
          <leafValues>
            7.4622923135757446e-01 -7.9002892971038818e-01</leafValues></_></weakClassifiers></_>
    <!-- stage 4 -->
    <_>
      <maxWeakCount>2</maxWeakCount>
      <stageThreshold>6.2993146479129791e-02</stageThreshold>
      <weakClassifiers>
        <_>
          <internalNodes>
            0 -1 21 1.0919835418462753e-02</internalNodes>
          <leafValues>
            -5.6000000238418579e-01 9.7142857313156128e-01</leafValues></_>
        <_>
          <internalNodes>
            0 -1 28 -1.1100071424152702e-04</internalNodes>
          <leafValues>
            6.5998858213424683e-01 -9.0843540430068970e-01</leafValues></_></weakClassifiers></_>
    <!-- stage 5 -->
    <_>
      <maxWeakCount>2</maxWeakCount>
      <stageThreshold>-4.4385679066181183e-02</stageThreshold>
      <weakClassifiers>
        <_>
          <internalNodes>
            0 -1 50 4.9312420189380646e-02</internalNodes>
          <leafValues>
            -7.3333334922790527e-01 9.7333335876464844e-01</leafValues></_>
        <_>
          <internalNodes>
            0 -1 16 -3.2032135874032974e-02</internalNodes>
          <leafValues>
            6.8894767761230469e-01 -1.</leafValues></_></weakClassifiers></_>
    <!-- stage 6 -->
    <_>
      <maxWeakCount>3</maxWeakCount>
      <stageThreshold>-5.2686828374862671e-01</stageThreshold>
      <weakClassifiers>
        <_>
          <internalNodes>
            0 -1 56 -5.6877443566918373e-03</internalNodes>
          <leafValues>
            8.5000002384185791e-01 -6.9999998807907104e-01</leafValues></_>
        <_>
          <internalNodes>
            0 -1 19 6.6875526681542397e-04</internalNodes>
          <leafValues>
            -5.6691515445709229e-01 8.9462381601333618e-01</leafValues></_>
        <_>
          <internalNodes>
            0 -1 45 -1.1034675408154726e-03</internalNodes>
          <leafValues>
            8.7580561637878418e-01 -7.2149205207824707e-01</leafValues></_></weakClassifiers></_>
    <!-- stage 7 -->
    <_>
      <maxWeakCount>2</maxWeakCount>
      <stageThreshold>-1.1499280110001564e-02</stageThreshold>
      <weakClassifiers>
        <_>
          <internalNodes>
            0 -1 10 6.8033812567591667e-04</internalNodes>
          <leafValues>
            -5.4166668653488159e-01 9.1666668653488159e-01</leafValues></_>
        <_>
          <internalNodes>
            0 -1 47 9.3778362497687340e-04</internalNodes>
          <leafValues>
            -9.2816597223281860e-01 7.1599602699279785e-01</leafValues></_></weakClassifiers></_>
    <!-- stage 8 -->
    <_>
      <maxWeakCount>2</maxWeakCount>
      <stageThreshold>9.3340188264846802e-02</stageThreshold>
      <weakClassifiers>
        <_>
          <internalNodes>
            0 -1 52 7.5133104110136628e-04</internalNodes>
          <leafValues>
            -8.8235294818878174e-01 8.1395345926284790e-01</leafValues></_>
        <_>
          <internalNodes>
            0 -1 2 1.3513710349798203e-02</internalNodes>
          <leafValues>
            -6.8559592962265015e-01 9.7569310665130615e-01</leafValues></_></weakClassifiers></_>
    <!-- stage 9 -->
    <_>
      <maxWeakCount>3</maxWeakCount>
      <stageThreshold>-5.8753943443298340e-01</stageThreshold>
      <weakClassifiers>
        <_>
          <internalNodes>
            0 -1 43 1.8236143514513969e-02</internalNodes>
          <leafValues>
            -6.5853661298751831e-01 8.4810125827789307e-01</leafValues></_>
        <_>
          <internalNodes>
            0 -1 13 7.5025986880064011e-03</internalNodes>
          <leafValues>
            -5.2852195501327515e-01 9.4310224056243896e-01</leafValues></_>
        <_>
          <internalNodes>
            0 -1 48 -2.0962210328434594e-05</internalNodes>
          <leafValues>
            5.9951913356781006e-01 -8.5111403465270996e-01</leafValues></_></weakClassifiers></_>
    <!-- stage 10 -->
    <_>
      <maxWeakCount>5</maxWeakCount>
      <stageThreshold>-1.2720330059528351e-01</stageThreshold>
      <weakClassifiers>
        <_>
          <internalNodes>
            0 -1 59 -4.9961162731051445e-03</internalNodes>
          <leafValues>
            8.8888889551162720e-01 -5.0000000000000000e-01</leafValues></_>
        <_>
          <internalNodes>
            0 -1 18 -9.3133456539362669e-04</internalNodes>
          <leafValues>
            7.6556450128555298e-01 -5.9720271825790405e-01</leafValues></_>
        <_>
          <internalNodes>
            0 -1 14 9.3341877800412476e-05</internalNodes>
          <leafValues>
            -6.8907028436660767e-01 6.7405724525451660e-01</leafValues></_>
        <_>
          <internalNodes>
            0 -1 9 -1.0282613802701235e-03</internalNodes>
          <leafValues>
            7.8601914644241333e-01 -5.8116316795349121e-01</leafValues></_>
        <_>
          <internalNodes>
            0 -1 17 -7.6346886344254017e-03</internalNodes>
          <leafValues>
            9.6758788824081421e-01 -4.8566183447837830e-01</leafValues></_></weakClassifiers></_>
    <!-- stage 11 -->
    <_>
      <maxWeakCount>2</maxWeakCount>
      <stageThreshold>1.4419628679752350e-01</stageThreshold>
      <weakClassifiers>
        <_>
          <internalNodes>
            0 -1 53 -4.3464913964271545e-02</internalNodes>
          <leafValues>
            9.6774190664291382e-01 -3.4482759237289429e-01</leafValues></_>
        <_>
          <internalNodes>
            0 -1 33 -5.2229338325560093e-04</internalNodes>
          <leafValues>
            6.3813894987106323e-01 -8.2354563474655151e-01</leafValues></_></weakClassifiers></_>
    <!-- stage 12 -->
    <_>
      <maxWeakCount>3</maxWeakCount>
      <stageThreshold>-7.4589151144027710e-01</stageThreshold>
      <weakClassifiers>
        <_>
          <internalNodes>
            0 -1 39 8.5120163857936859e-03</internalNodes>
          <leafValues>
            -6.2790697813034058e-01 8.7012988328933716e-01</leafValues></_>
        <_>
          <internalNodes>
            0 -1 29 -8.9700159151107073e-04</internalNodes>
          <leafValues>
            -7.5940495729446411e-01 6.8943798542022705e-01</leafValues></_>
        <_>
          <internalNodes>
            0 -1 34 2.5472147390246391e-02</internalNodes>
          <leafValues>
            -7.2970932722091675e-01 6.4142042398452759e-01</leafValues></_></weakClassifiers></_>
    <!-- stage 13 -->
    <_>
      <maxWeakCount>5</maxWeakCount>
      <stageThreshold>-2.5470057129859924e-01</stageThreshold>
      <weakClassifiers>
        <_>
          <internalNodes>
            0 -1 3 -1.2166587635874748e-02</internalNodes>
          <leafValues>
            9.3939393758773804e-01 -4.0740740299224854e-01</leafValues></_>
        <_>
          <internalNodes>
            0 -1 11 7.2024906985461712e-03</internalNodes>
          <leafValues>
            -4.8996201157569885e-01 7.4350363016128540e-01</leafValues></_>
        <_>
          <internalNodes>
            0 -1 4 -1.2598240375518799e-01</internalNodes>
          <leafValues>
            -9.7763425111770630e-01 4.9372398853302002e-01</leafValues></_>
        <_>
          <internalNodes>
            0 -1 51 -7.9616904258728027e-02</internalNodes>
          <leafValues>
            8.6557781696319580e-01 -5.4025185108184814e-01</leafValues></_>
        <_>
          <internalNodes>
            0 -1 8 -5.4423590190708637e-03</internalNodes>
          <leafValues>
            7.2138458490371704e-01 -5.4426890611648560e-01</leafValues></_></weakClassifiers></_>
    <!-- stage 14 -->
    <_>
      <maxWeakCount>4</maxWeakCount>
      <stageThreshold>-2.7030682563781738e-01</stageThreshold>
      <weakClassifiers>
        <_>
          <internalNodes>
            0 -1 36 6.2676191329956055e-02</internalNodes>
          <leafValues>
            -7.9310345649719238e-01 6.9230771064758301e-01</leafValues></_>
        <_>
          <internalNodes>
            0 -1 27 9.9706696346402168e-05</internalNodes>
          <leafValues>
            5.5960339307785034e-01 -8.9614993333816528e-01</leafValues></_>
        <_>
          <internalNodes>
            0 -1 26 -2.0505798980593681e-02</internalNodes>
          <leafValues>
            1. -5.6338232755661011e-01</leafValues></_>
        <_>
          <internalNodes>
            0 -1 60 3.0531166703440249e-04</internalNodes>
          <leafValues>
            5.2657556533813477e-01 -9.4446241855621338e-01</leafValues></_></weakClassifiers></_>
    <!-- stage 15 -->
    <_>
      <maxWeakCount>4</maxWeakCount>
      <stageThreshold>1.4153295755386353e-01</stageThreshold>
      <weakClassifiers>
        <_>
          <internalNodes>
            0 -1 30 -1.2320522218942642e-03</internalNodes>
          <leafValues>
            -8.6206895112991333e-01 7.1428573131561279e-01</leafValues></_>
        <_>
          <internalNodes>
            0 -1 24 -7.4381334707140923e-03</internalNodes>
          <leafValues>
            6.0763174295425415e-01 -8.6909735202789307e-01</leafValues></_>
        <_>
          <internalNodes>
            0 -1 6 -8.9903362095355988e-03</internalNodes>
          <leafValues>
            1. -4.8583364486694336e-01</leafValues></_>
        <_>
          <internalNodes>
            0 -1 42 -7.8656807541847229e-02</internalNodes>
          <leafValues>
            8.8180381059646606e-01 -5.0316375494003296e-01</leafValues></_></weakClassifiers></_>
    <!-- stage 16 -->
    <_>
      <maxWeakCount>2</maxWeakCount>
      <stageThreshold>2.4598624557256699e-02</stageThreshold>
      <weakClassifiers>
        <_>
          <internalNodes>
            0 -1 37 -7.3375052306801081e-04</internalNodes>
          <leafValues>
            7.0786517858505249e-01 -7.4193549156188965e-01</leafValues></_>
        <_>
          <internalNodes>
            0 -1 31 -5.2709537558257580e-03</internalNodes>
          <leafValues>
            7.6653409004211426e-01 -5.8965241909027100e-01</leafValues></_></weakClassifiers></_>
    <!-- stage 17 -->
    <_>
      <maxWeakCount>4</maxWeakCount>
      <stageThreshold>-1.5742167830467224e-01</stageThreshold>
      <weakClassifiers>
        <_>
          <internalNodes>
            0 -1 35 -2.1914601325988770e-02</internalNodes>
          <leafValues>
            8.0000001192092896e-01 -6.0000002384185791e-01</leafValues></_>
        <_>
          <internalNodes>
            0 -1 46 -1.0043258778750896e-02</internalNodes>
          <leafValues>
            -7.1488964557647705e-01 7.6867467164993286e-01</leafValues></_>
        <_>
          <internalNodes>
            0 -1 25 2.7651200070977211e-03</internalNodes>
          <leafValues>
            5.1298767328262329e-01 -9.2958533763885498e-01</leafValues></_>
        <_>
          <internalNodes>
            0 -1 0 7.4095800518989563e-03</internalNodes>
          <leafValues>
            -7.7032607793807983e-01 6.4448028802871704e-01</leafValues></_></weakClassifiers></_>
    <!-- stage 18 -->
    <_>
      <maxWeakCount>3</maxWeakCount>
      <stageThreshold>5.9895151853561401e-01</stageThreshold>
      <weakClassifiers>
        <_>
          <internalNodes>
            0 -1 49 5.0396105507388711e-04</internalNodes>
          <leafValues>
            -8.5185188055038452e-01 6.7741936445236206e-01</leafValues></_>
        <_>
          <internalNodes>
            0 -1 22 -1.0504375677555799e-03</internalNodes>
          <leafValues>
            -7.3573184013366699e-01 5.9234112501144409e-01</leafValues></_>
        <_>
          <internalNodes>
            0 -1 5 1.5567503869533539e-03</internalNodes>
          <leafValues>
            -6.0996890068054199e-01 8.5846221446990967e-01</leafValues></_></weakClassifiers></_>
    <!-- stage 19 -->
    <_>
      <maxWeakCount>2</maxWeakCount>
      <stageThreshold>1.1035837233066559e-02</stageThreshold>
      <weakClassifiers>
        <_>
          <internalNodes>
            0 -1 57 -6.6636800765991211e-03</internalNodes>
          <leafValues>
            8.9743590354919434e-01 -7.1428573131561279e-01</leafValues></_>
        <_>
          <internalNodes>
            0 -1 38 6.1615090817213058e-04</internalNodes>
          <leafValues>
            -7.9201942682266235e-01 7.2532153129577637e-01</leafValues></_></weakClassifiers></_>
    <!-- stage 20 -->
    <_>
      <maxWeakCount>3</maxWeakCount>
      <stageThreshold>-5.2808654308319092e-01</stageThreshold>
      <weakClassifiers>
        <_>
          <internalNodes>
            0 -1 58 -7.9485699534416199e-03</internalNodes>
          <leafValues>
            9.1891890764236450e-01 -6.0869562625885010e-01</leafValues></_>
        <_>
          <internalNodes>
            0 -1 1 1.2847173493355513e-03</internalNodes>
          <leafValues>
            1. -5.5896311998367310e-01</leafValues></_>
        <_>
          <internalNodes>
            0 -1 25 3.6952721420675516e-03</internalNodes>
          <leafValues>
            7.3614436388015747e-01 -8.8804239034652710e-01</leafValues></_></weakClassifiers></_>
    <!-- stage 21 -->
    <_>
      <maxWeakCount>2</maxWeakCount>
      <stageThreshold>1.8181818723678589e-01</stageThreshold>
      <weakClassifiers>
        <_>
          <internalNodes>
            0 -1 54 -2.3198118433356285e-02</internalNodes>
          <leafValues>
            -8.1818181276321411e-01 1.</leafValues></_>
        <_>
          <internalNodes>
            0 -1 20 3.5078004002571106e-03</internalNodes>
          <leafValues>
            -8.1123471260070801e-01 1.</leafValues></_></weakClassifiers></_></stages>
  <features>
    <_>
      <rects>
        <_>
          0 1 14 1 -1.</_>
        <_>
          7 1 7 1 2.</_></rects>
      <tilted>0</tilted></_>
    <_>
      <rects>
        <_>
          0 13 6 2 -1.</_>
        <_>
          2 13 2 2 3.</_></rects>
      <tilted>0</tilted></_>
    <_>
      <rects>
        <_>
          1 0 10 3 -1.</_>
        <_>
          1 1 10 1 3.</_></rects>
      <tilted>0</tilted></_>
    <_>
      <rects>
        <_>
          3 0 3 17 -1.</_>
        <_>
          4 0 1 17 3.</_></rects>
      <tilted>0</tilted></_>
    <_>
      <rects>
        <_>
          3 1 9 13 -1.</_>
        <_>
          6 1 3 13 3.</_></rects>
      <tilted>0</tilted></_>
    <_>
      <rects>
        <_>
          3 2 6 1 -1.</_>
        <_>
          6 2 3 1 2.</_></rects>
      <tilted>0</tilted></_>
    <_>
      <rects>
        <_>
          3 7 3 6 -1.</_>
        <_>
          4 7 1 6 3.</_></rects>
      <tilted>0</tilted></_>
    <_>
      <rects>
        <_>
          3 7 3 9 -1.</_>
        <_>
          4 7 1 9 3.</_></rects>
      <tilted>0</tilted></_>
    <_>
      <rects>
        <_>
          3 9 3 8 -1.</_>
        <_>
          4 9 1 8 3.</_></rects>
      <tilted>0</tilted></_>
    <_>
      <rects>
        <_>
          3 13 3 2 -1.</_>
        <_>
          4 13 1 2 3.</_></rects>
      <tilted>0</tilted></_>
    <_>
      <rects>
        <_>
          3 19 4 1 -1.</_>
        <_>
          5 19 2 1 2.</_></rects>
      <tilted>0</tilted></_>
    <_>
      <rects>
        <_>
          4 2 3 18 -1.</_>
        <_>
          5 2 1 18 3.</_></rects>
      <tilted>0</tilted></_>
    <_>
      <rects>
        <_>
          4 3 3 17 -1.</_>
        <_>
          5 3 1 17 3.</_></rects>
      <tilted>0</tilted></_>
    <_>
      <rects>
        <_>
          4 4 2 12 -1.</_>
        <_>
          5 4 1 12 2.</_></rects>
      <tilted>0</tilted></_>
    <_>
      <rects>
        <_>
          5 0 1 2 -1.</_>
        <_>
          5 1 1 1 2.</_></rects>
      <tilted>0</tilted></_>
    <_>
      <rects>
        <_>
          5 0 4 3 -1.</_>
        <_>
          5 1 4 1 3.</_></rects>
      <tilted>0</tilted></_>
    <_>
      <rects>
        <_>
          5 4 9 10 -1.</_>
        <_>
          5 9 9 5 2.</_></rects>
      <tilted>0</tilted></_>
    <_>
      <rects>
        <_>
          5 7 3 11 -1.</_>
        <_>
          6 7 1 11 3.</_></rects>
      <tilted>0</tilted></_>
    <_>
      <rects>
        <_>
          5 11 2 4 -1.</_>
        <_>
          6 11 1 4 2.</_></rects>
      <tilted>0</tilted></_>
    <_>
      <rects>
        <_>
          5 18 5 2 -1.</_>
        <_>
          5 19 5 1 2.</_></rects>
      <tilted>0</tilted></_>
    <_>
      <rects>
        <_>
          6 0 4 3 -1.</_>
        <_>
          6 1 4 1 3.</_></rects>
      <tilted>0</tilted></_>
    <_>
      <rects>
        <_>
          6 0 5 3 -1.</_>
        <_>
          6 1 5 1 3.</_></rects>
      <tilted>0</tilted></_>
    <_>
      <rects>
        <_>
          6 1 2 2 -1.</_>
        <_>
          6 1 1 1 2.</_>
        <_>
          7 2 1 1 2.</_></rects>
      <tilted>0</tilted></_>
    <_>
      <rects>
        <_>
          6 1 1 6 -1.</_>
        <_>
          6 4 1 3 2.</_></rects>
      <tilted>0</tilted></_>
    <_>
      <rects>
        <_>
          6 1 1 12 -1.</_>
        <_>
          6 7 1 6 2.</_></rects>
      <tilted>0</tilted></_>
    <_>
      <rects>
        <_>
          6 1 6 1 -1.</_>
        <_>
          8 1 2 1 3.</_></rects>
      <tilted>0</tilted></_>
    <_>
      <rects>
        <_>
          6 1 11 2 -1.</_>
        <_>
          6 2 11 1 2.</_></rects>
      <tilted>0</tilted></_>
    <_>
      <rects>
        <_>
          6 2 2 1 -1.</_>
        <_>
          7 2 1 1 2.</_></rects>
      <tilted>0</tilted></_>
    <_>
      <rects>
        <_>
          6 2 1 2 -1.</_>
        <_>
          6 3 1 1 2.</_></rects>
      <tilted>0</tilted></_>
    <_>
      <rects>
        <_>
          6 2 3 1 -1.</_>
        <_>
          7 2 1 1 3.</_></rects>
      <tilted>0</tilted></_>
    <_>
      <rects>
        <_>
          6 2 1 3 -1.</_>
        <_>
          6 3 1 1 3.</_></rects>
      <tilted>0</tilted></_>
    <_>
      <rects>
        <_>
          6 4 3 3 -1.</_>
        <_>
          7 4 1 3 3.</_></rects>
      <tilted>0</tilted></_>
    <_>
      <rects>
        <_>
          6 4 6 4 -1.</_>
        <_>
          9 4 3 4 2.</_></rects>
      <tilted>0</tilted></_>
    <_>
      <rects>
        <_>
          7 1 1 2 -1.</_>
        <_>
          7 2 1 1 2.</_></rects>
      <tilted>0</tilted></_>
    <_>
      <rects>
        <_>
          7 3 4 8 -1.</_>
        <_>
          9 3 2 8 2.</_></rects>
      <tilted>0</tilted></_>
    <_>
      <rects>
        <_>
          8 0 8 8 -1.</_>
        <_>
          8 0 4 4 2.</_>
        <_>
          12 4 4 4 2.</_></rects>
      <tilted>0</tilted></_>
    <_>
      <rects>
        <_>
          8 0 7 12 -1.</_>
        <_>
          8 4 7 4 3.</_></rects>
      <tilted>0</tilted></_>
    <_>
      <rects>
        <_>
          8 1 1 2 -1.</_>
        <_>
          8 2 1 1 2.</_></rects>
      <tilted>0</tilted></_>
    <_>
      <rects>
        <_>
          8 2 3 6 -1.</_>
        <_>
          9 2 1 6 3.</_></rects>
      <tilted>0</tilted></_>
    <_>
      <rects>
        <_>
          8 4 2 4 -1.</_>
        <_>
          9 4 1 4 2.</_></rects>
      <tilted>0</tilted></_>
    <_>
      <rects>
        <_>
          8 4 6 6 -1.</_>
        <_>
          10 4 2 6 3.</_></rects>
      <tilted>0</tilted></_>
    <_>
      <rects>
        <_>
          8 5 2 2 -1.</_>
        <_>
          9 5 1 2 2.</_></rects>
      <tilted>0</tilted></_>
    <_>
      <rects>
        <_>
          8 5 10 3 -1.</_>
        <_>
          13 5 5 3 2.</_></rects>
      <tilted>0</tilted></_>
    <_>
      <rects>
        <_>
          9 0 1 12 -1.</_>
        <_>
          9 4 1 4 3.</_></rects>
      <tilted>0</tilted></_>
    <_>
      <rects>
        <_>
          9 0 4 12 -1.</_>
        <_>
          9 4 4 4 3.</_></rects>
      <tilted>0</tilted></_>
    <_>
      <rects>
        <_>
          9 1 2 2 -1.</_>
        <_>
          9 2 2 1 2.</_></rects>
      <tilted>0</tilted></_>
    <_>
      <rects>
        <_>
          9 1 9 2 -1.</_>
        <_>
          12 1 3 2 3.</_></rects>
      <tilted>0</tilted></_>
    <_>
      <rects>
        <_>
          9 5 3 1 -1.</_>
        <_>
          10 5 1 1 3.</_></rects>
      <tilted>0</tilted></_>
    <_>
      <rects>
        <_>
          9 5 4 1 -1.</_>
        <_>
          11 5 2 1 2.</_></rects>
      <tilted>0</tilted></_>
    <_>
      <rects>
        <_>
          9 6 2 1 -1.</_>
        <_>
          10 6 1 1 2.</_></rects>
      <tilted>0</tilted></_>
    <_>
      <rects>
        <_>
          10 0 3 12 -1.</_>
        <_>
          10 4 3 4 3.</_></rects>
      <tilted>0</tilted></_>
    <_>
      <rects>
        <_>
          10 4 9 5 -1.</_>
        <_>
          13 4 3 5 3.</_></rects>
      <tilted>0</tilted></_>
    <_>
      <rects>
        <_>
          10 5 3 1 -1.</_>
        <_>
          11 5 1 1 3.</_></rects>
      <tilted>0</tilted></_>
    <_>
      <rects>
        <_>
          10 5 3 6 -1.</_>
        <_>
          10 8 3 3 2.</_></rects>
      <tilted>0</tilted></_>
    <_>
      <rects>
        <_>
          10 14 10 6 -1.</_>
        <_>
          10 14 5 3 2.</_>
        <_>
          15 17 5 3 2.</_></rects>
      <tilted>0</tilted></_>
    <_>
      <rects>
        <_>
          11 5 2 1 -1.</_>
        <_>
          12 5 1 1 2.</_></rects>
      <tilted>0</tilted></_>
    <_>
      <rects>
        <_>
          12 1 3 8 -1.</_>
        <_>
          13 1 1 8 3.</_></rects>
      <tilted>0</tilted></_>
    <_>
      <rects>
        <_>
          12 3 3 6 -1.</_>
        <_>
          13 3 1 6 3.</_></rects>
      <tilted>0</tilted></_>
    <_>
      <rects>
        <_>
          12 3 3 8 -1.</_>
        <_>
          13 3 1 8 3.</_></rects>
      <tilted>0</tilted></_>
    <_>
      <rects>
        <_>
          12 5 2 2 -1.</_>
        <_>
          13 5 1 2 2.</_></rects>
      <tilted>0</tilted></_>
    <_>
      <rects>
        <_>
          13 1 2 1 -1.</_>
        <_>
          14 1 1 1 2.</_></rects>
      <tilted>0</tilted></_></features></cascade>
</opencv_storage>
