<?xml version="1.0"?>
<opencv_storage>
<stage13>
  <maxWeakCount>5</maxWeakCount>
  <stageThreshold>-2.5470057129859924e-01</stageThreshold>
  <weakClassifiers>
    <_>
      <internalNodes>
        0 -1 21810 -1.2166587635874748e-02</internalNodes>
      <leafValues>
        9.3939393758773804e-01 -4.0740740299224854e-01</leafValues></_>
    <_>
      <internalNodes>
        0 -1 29266 7.2024906985461712e-03</internalNodes>
      <leafValues>
        -4.8996201157569885e-01 7.4350363016128540e-01</leafValues></_>
    <_>
      <internalNodes>
        0 -1 22536 -1.2598240375518799e-01</internalNodes>
      <leafValues>
        -9.7763425111770630e-01 4.9372398853302002e-01</leafValues></_>
    <_>
      <internalNodes>
        0 -1 60085 -7.9616904258728027e-02</internalNodes>
      <leafValues>
        8.6557781696319580e-01 -5.4025185108184814e-01</leafValues></_>
    <_>
      <internalNodes>
        0 -1 26166 -5.4423590190708637e-03</internalNodes>
      <leafValues>
        7.2138458490371704e-01 -5.4426890611648560e-01</leafValues></_></weakClassifiers></stage13>
</opencv_storage>
