<?xml version="1.0"?>
<opencv_storage>
<cascade>
  <stageType>BOOST</stageType>
  <featureType>HAAR</featureType>
  <height>20</height>
  <width>20</width>
  <stageParams>
    <boostType>GAB</boostType>
    <minHitRate>9.9500000476837158e-01</minHitRate>
    <maxFalseAlarm>5.0000000000000000e-01</maxFalseAlarm>
    <weightTrimRate>9.4999999999999996e-01</weightTrimRate>
    <maxDepth>1</maxDepth>
    <maxWeakCount>100</maxWeakCount></stageParams>
  <featureParams>
    <maxCatCount>0</maxCatCount>
    <featSize>1</featSize>
    <mode>BASIC</mode></featureParams>
  <stageNum>30</stageNum>
  <stages>
    <!-- stage 0 -->
    <_>
      <maxWeakCount>3</maxWeakCount>
      <stageThreshold>-2.3411196470260620e-01</stageThreshold>
      <weakClassifiers>
        <_>
          <internalNodes>
            0 -1 91 2.8945863246917725e-02</internalNodes>
          <leafValues>
            -3.6842104792594910e-01 9.6825397014617920e-01</leafValues></_>
        <_>
          <internalNodes>
            0 -1 107 -6.9113206118345261e-03</internalNodes>
          <leafValues>
            7.8609216213226318e-01 -4.6155834197998047e-01</leafValues></_>
        <_>
          <internalNodes>
            0 -1 94 -1.1961795389652252e-02</internalNodes>
          <leafValues>
            5.9586745500564575e-01 -9.4406974315643311e-01</leafValues></_></weakClassifiers></_>
    <!-- stage 1 -->
    <_>
      <maxWeakCount>3</maxWeakCount>
      <stageThreshold>1.4437305927276611e-01</stageThreshold>
      <weakClassifiers>
        <_>
          <internalNodes>
            0 -1 64 -7.1901725605130196e-03</internalNodes>
          <leafValues>
            9.2982459068298340e-01 -2.0634920895099640e-01</leafValues></_>
        <_>
          <internalNodes>
            0 -1 82 -8.5377395153045654e-03</internalNodes>
          <leafValues>
            8.4647697210311890e-01 -4.2227271199226379e-01</leafValues></_>
        <_>
          <internalNodes>
            0 -1 112 -3.8869476411491632e-03</internalNodes>
          <leafValues>
            1. -3.6317878961563110e-01</leafValues></_></weakClassifiers></_>
    <!-- stage 2 -->
    <_>
      <maxWeakCount>4</maxWeakCount>
      <stageThreshold>-1.3067021965980530e-01</stageThreshold>
      <weakClassifiers>
        <_>
          <internalNodes>
            0 -1 63 -2.6007355190813541e-03</internalNodes>
          <leafValues>
            7.8947371244430542e-01 -4.5454546809196472e-01</leafValues></_>
        <_>
          <internalNodes>
            0 -1 80 1.2735444121062756e-02</internalNodes>
          <leafValues>
            -2.8607305884361267e-01 9.1730332374572754e-01</leafValues></_>
        <_>
          <internalNodes>
            0 -1 47 5.2712444216012955e-02</internalNodes>
          <leafValues>
            -2.4142442643642426e-01 1.</leafValues></_>
        <_>
          <internalNodes>
            0 -1 69 -3.7445481866598129e-03</internalNodes>
          <leafValues>
            9.2287164926528931e-01 -3.5200363397598267e-01</leafValues></_></weakClassifiers></_>
    <!-- stage 3 -->
    <_>
      <maxWeakCount>4</maxWeakCount>
      <stageThreshold>1.0551637411117554e-01</stageThreshold>
      <weakClassifiers>
        <_>
          <internalNodes>
            0 -1 85 -4.9537457525730133e-02</internalNodes>
          <leafValues>
            8.5074627399444580e-01 -3.2075470685958862e-01</leafValues></_>
        <_>
          <internalNodes>
            0 -1 15 -1.7828581621870399e-03</internalNodes>
          <leafValues>
            -6.9251418113708496e-01 5.6449377536773682e-01</leafValues></_>
        <_>
          <internalNodes>
            0 -1 88 -5.1522433757781982e-02</internalNodes>
          <leafValues>
            8.3020794391632080e-01 -3.7751561403274536e-01</leafValues></_>
        <_>
          <internalNodes>
            0 -1 56 -1.3504251837730408e-03</internalNodes>
          <leafValues>
            -8.8292366266250610e-01 4.2730018496513367e-01</leafValues></_></weakClassifiers></_>
    <!-- stage 4 -->
    <_>
      <maxWeakCount>4</maxWeakCount>
      <stageThreshold>1.5089173614978790e-01</stageThreshold>
      <weakClassifiers>
        <_>
          <internalNodes>
            0 -1 28 4.8082955181598663e-02</internalNodes>
          <leafValues>
            -3.4883719682693481e-01 7.1428573131561279e-01</leafValues></_>
        <_>
          <internalNodes>
            0 -1 84 -4.8757143318653107e-02</internalNodes>
          <leafValues>
            7.2927439212799072e-01 -5.1861959695816040e-01</leafValues></_>
        <_>
          <internalNodes>
            0 -1 134 5.4188899230211973e-04</internalNodes>
          <leafValues>
            5.7622176408767700e-01 -6.8127715587615967e-01</leafValues></_>
        <_>
          <internalNodes>
            0 -1 60 2.4563621263951063e-04</internalNodes>
          <leafValues>
            5.1642692089080811e-01 -6.1139118671417236e-01</leafValues></_></weakClassifiers></_>
    <!-- stage 5 -->
    <_>
      <maxWeakCount>5</maxWeakCount>
      <stageThreshold>-1.0152279585599899e-01</stageThreshold>
      <weakClassifiers>
        <_>
          <internalNodes>
            0 -1 105 -2.1631433628499508e-03</internalNodes>
          <leafValues>
            6.8674701452255249e-01 -4.5945945382118225e-01</leafValues></_>
        <_>
          <internalNodes>
            0 -1 39 7.8078001737594604e-02</internalNodes>
          <leafValues>
            -4.0878143906593323e-01 6.4772778749465942e-01</leafValues></_>
        <_>
          <internalNodes>
            0 -1 139 -6.4922851743176579e-04</internalNodes>
          <leafValues>
            -5.9481096267700195e-01 5.2388012409210205e-01</leafValues></_>
        <_>
          <internalNodes>
            0 -1 37 -3.1573448795825243e-03</internalNodes>
          <leafValues>
            6.5710657835006714e-01 -4.7647973895072937e-01</leafValues></_>
        <_>
          <internalNodes>
            0 -1 10 -6.9262983743101358e-05</internalNodes>
          <leafValues>
            8.4345072507858276e-01 -3.5208675265312195e-01</leafValues></_></weakClassifiers></_>
    <!-- stage 6 -->
    <_>
      <maxWeakCount>6</maxWeakCount>
      <stageThreshold>1.0240721702575684e-01</stageThreshold>
      <weakClassifiers>
        <_>
          <internalNodes>
            0 -1 41 -4.3890188680961728e-04</internalNodes>
          <leafValues>
            -5.7142859697341919e-01 6.0869562625885010e-01</leafValues></_>
        <_>
          <internalNodes>
            0 -1 79 -1.6409162431955338e-02</internalNodes>
          <leafValues>
            8.2078653573989868e-01 -4.3802395462989807e-01</leafValues></_>
        <_>
          <internalNodes>
            0 -1 13 -1.5009015332907438e-03</internalNodes>
          <leafValues>
            -5.8719533681869507e-01 5.5809533596038818e-01</leafValues></_>
        <_>
          <internalNodes>
            0 -1 76 -2.5896115694195032e-03</internalNodes>
          <leafValues>
            -7.7521735429763794e-01 4.0710756182670593e-01</leafValues></_>
        <_>
          <internalNodes>
            0 -1 49 2.2920824587345123e-02</internalNodes>
          <leafValues>
            -6.0021018981933594e-01 5.5576390027999878e-01</leafValues></_>
        <_>
          <internalNodes>
            0 -1 67 -2.3223137483000755e-02</internalNodes>
          <leafValues>
            8.9981031417846680e-01 -4.0690642595291138e-01</leafValues></_></weakClassifiers></_>
    <!-- stage 7 -->
    <_>
      <maxWeakCount>5</maxWeakCount>
      <stageThreshold>-3.5169580578804016e-01</stageThreshold>
      <weakClassifiers>
        <_>
          <internalNodes>
            0 -1 121 -8.4404798690229654e-04</internalNodes>
          <leafValues>
            -1. 5.2380955219268799e-01</leafValues></_>
        <_>
          <internalNodes>
            0 -1 51 4.2109051719307899e-04</internalNodes>
          <leafValues>
            6.6058945655822754e-01 -4.5579037070274353e-01</leafValues></_>
        <_>
          <internalNodes>
            0 -1 77 -3.1140979379415512e-02</internalNodes>
          <leafValues>
            9.0835970640182495e-01 -3.0963027477264404e-01</leafValues></_>
        <_>
          <internalNodes>
            0 -1 106 3.6256201565265656e-03</internalNodes>
          <leafValues>
            -5.2654612064361572e-01 7.3710829019546509e-01</leafValues></_>
        <_>
          <internalNodes>
            0 -1 137 2.8771258075721562e-04</internalNodes>
          <leafValues>
            4.1646140813827515e-01 -8.7640684843063354e-01</leafValues></_></weakClassifiers></_>
    <!-- stage 8 -->
    <_>
      <maxWeakCount>4</maxWeakCount>
      <stageThreshold>-2.1321246027946472e-01</stageThreshold>
      <weakClassifiers>
        <_>
          <internalNodes>
            0 -1 14 9.5684509724378586e-03</internalNodes>
          <leafValues>
            5.2941179275512695e-01 -7.7777779102325439e-01</leafValues></_>
        <_>
          <internalNodes>
            0 -1 86 -3.4929842222481966e-03</internalNodes>
          <leafValues>
            7.3201709985733032e-01 -3.8066822290420532e-01</leafValues></_>
        <_>
          <internalNodes>
            0 -1 135 -8.5918116383254528e-04</internalNodes>
          <leafValues>
            -7.7803689241409302e-01 4.1642999649047852e-01</leafValues></_>
        <_>
          <internalNodes>
            0 -1 5 1.3706499710679054e-02</internalNodes>
          <leafValues>
            -6.9660443067550659e-01 4.8497876524925232e-01</leafValues></_></weakClassifiers></_>
    <!-- stage 9 -->
    <_>
      <maxWeakCount>6</maxWeakCount>
      <stageThreshold>3.0610591173171997e-01</stageThreshold>
      <weakClassifiers>
        <_>
          <internalNodes>
            0 -1 98 -2.1538536995649338e-02</internalNodes>
          <leafValues>
            5.9574466943740845e-01 -6.1538463830947876e-01</leafValues></_>
        <_>
          <internalNodes>
            0 -1 23 -3.5392288118600845e-03</internalNodes>
          <leafValues>
            -5.4643839597702026e-01 5.8159059286117554e-01</leafValues></_>
        <_>
          <internalNodes>
            0 -1 27 -2.0827537809964269e-04</internalNodes>
          <leafValues>
            -4.7541898488998413e-01 6.1649245023727417e-01</leafValues></_>
        <_>
          <internalNodes>
            0 -1 16 3.7474950659088790e-04</internalNodes>
          <leafValues>
            -5.0843816995620728e-01 5.9060221910476685e-01</leafValues></_>
        <_>
          <internalNodes>
            0 -1 103 -6.3259466551244259e-03</internalNodes>
          <leafValues>
            6.6012072563171387e-01 -4.6984648704528809e-01</leafValues></_>
        <_>
          <internalNodes>
            0 -1 95 7.4285613372921944e-03</internalNodes>
          <leafValues>
            -3.9734822511672974e-01 7.4721711874008179e-01</leafValues></_></weakClassifiers></_>
    <!-- stage 10 -->
    <_>
      <maxWeakCount>4</maxWeakCount>
      <stageThreshold>1.4046977460384369e-01</stageThreshold>
      <weakClassifiers>
        <_>
          <internalNodes>
            0 -1 33 -1.3029446825385094e-02</internalNodes>
          <leafValues>
            -5.1724135875701904e-01 6.0439562797546387e-01</leafValues></_>
        <_>
          <internalNodes>
            0 -1 120 -2.2328451741486788e-03</internalNodes>
          <leafValues>
            -6.3142085075378418e-01 4.0537568926811218e-01</leafValues></_>
        <_>
          <internalNodes>
            0 -1 53 -1.1283552274107933e-02</internalNodes>
          <leafValues>
            7.8857421875000000e-01 -3.7202036380767822e-01</leafValues></_>
        <_>
          <internalNodes>
            0 -1 35 1.4966190792620182e-03</internalNodes>
          <leafValues>
            6.2435585260391235e-01 -4.8525792360305786e-01</leafValues></_></weakClassifiers></_>
    <!-- stage 11 -->
    <_>
      <maxWeakCount>4</maxWeakCount>
      <stageThreshold>4.2491424828767776e-02</stageThreshold>
      <weakClassifiers>
        <_>
          <internalNodes>
            0 -1 137 -4.2066088644787669e-04</internalNodes>
          <leafValues>
            -4.6666666865348816e-01 6.0000002384185791e-01</leafValues></_>
        <_>
          <internalNodes>
            0 -1 132 -1.1403122916817665e-03</internalNodes>
          <leafValues>
            -4.4380253553390503e-01 6.8769371509552002e-01</leafValues></_>
        <_>
          <internalNodes>
            0 -1 44 1.1738388566300273e-03</internalNodes>
          <leafValues>
            4.4477969408035278e-01 -7.0674234628677368e-01</leafValues></_>
        <_>
          <internalNodes>
            0 -1 140 3.7025714846095070e-05</internalNodes>
          <leafValues>
            -4.8581445217132568e-01 5.9303629398345947e-01</leafValues></_></weakClassifiers></_>
    <!-- stage 12 -->
    <_>
      <maxWeakCount>6</maxWeakCount>
      <stageThreshold>-2.4517293274402618e-01</stageThreshold>
      <weakClassifiers>
        <_>
          <internalNodes>
            0 -1 109 -3.9355564862489700e-02</internalNodes>
          <leafValues>
            7.9661017656326294e-01 -1.1475409567356110e-01</leafValues></_>
        <_>
          <internalNodes>
            0 -1 87 -9.3543104827404022e-02</internalNodes>
          <leafValues>
            5.8310467004776001e-01 -3.7183082103729248e-01</leafValues></_>
        <_>
          <internalNodes>
            0 -1 126 -9.3011441640555859e-04</internalNodes>
          <leafValues>
            -7.7090448141098022e-01 3.5414889454841614e-01</leafValues></_>
        <_>
          <internalNodes>
            0 -1 102 7.4744783341884613e-03</internalNodes>
          <leafValues>
            -3.1160163879394531e-01 9.2818337678909302e-01</leafValues></_>
        <_>
          <internalNodes>
            0 -1 97 -4.7266885638237000e-02</internalNodes>
          <leafValues>
            8.5246813297271729e-01 -3.5912552475929260e-01</leafValues></_>
        <_>
          <internalNodes>
            0 -1 61 1.6670011682435870e-03</internalNodes>
          <leafValues>
            -3.5337400436401367e-01 7.5440865755081177e-01</leafValues></_></weakClassifiers></_>
    <!-- stage 13 -->
    <_>
      <maxWeakCount>5</maxWeakCount>
      <stageThreshold>-2.0409028232097626e-01</stageThreshold>
      <weakClassifiers>
        <_>
          <internalNodes>
            0 -1 83 4.1962573304772377e-03</internalNodes>
          <leafValues>
            5.0000000000000000e-01 -7.5000000000000000e-01</leafValues></_>
        <_>
          <internalNodes>
            0 -1 65 -9.6006542444229126e-03</internalNodes>
          <leafValues>
            7.6346176862716675e-01 -2.9218745231628418e-01</leafValues></_>
        <_>
          <internalNodes>
            0 -1 21 2.0281451940536499e-01</internalNodes>
          <leafValues>
            -3.3060497045516968e-01 6.0519593954086304e-01</leafValues></_>
        <_>
          <internalNodes>
            0 -1 18 -1.9416748546063900e-03</internalNodes>
          <leafValues>
            -7.8471601009368896e-01 3.4447044134140015e-01</leafValues></_>
        <_>
          <internalNodes>
            0 -1 78 1.8605861812829971e-02</internalNodes>
          <leafValues>
            -2.3238275945186615e-01 1.</leafValues></_></weakClassifiers></_>
    <!-- stage 14 -->
    <_>
      <maxWeakCount>4</maxWeakCount>
      <stageThreshold>-2.7114298194646835e-02</stageThreshold>
      <weakClassifiers>
        <_>
          <internalNodes>
            0 -1 138 -3.0964538455009460e-03</internalNodes>
          <leafValues>
            -8.8235294818878174e-01 5.3398060798645020e-01</leafValues></_>
        <_>
          <internalNodes>
            0 -1 122 2.3874962062109262e-04</internalNodes>
          <leafValues>
            -3.5044103860855103e-01 9.1035008430480957e-01</leafValues></_>
        <_>
          <internalNodes>
            0 -1 123 5.7113624643534422e-04</internalNodes>
          <leafValues>
            5.4029005765914917e-01 -4.6763706207275391e-01</leafValues></_>
        <_>
          <internalNodes>
            0 -1 22 -2.0982321351766586e-02</internalNodes>
          <leafValues>
            -6.9975721836090088e-01 4.1252562403678894e-01</leafValues></_></weakClassifiers></_>
    <!-- stage 15 -->
    <_>
      <maxWeakCount>5</maxWeakCount>
      <stageThreshold>2.3648029565811157e-01</stageThreshold>
      <weakClassifiers>
        <_>
          <internalNodes>
            0 -1 115 9.6856728196144104e-03</internalNodes>
          <leafValues>
            5.7446807622909546e-01 -5.3846156597137451e-01</leafValues></_>
        <_>
          <internalNodes>
            0 -1 7 -2.3804514203220606e-03</internalNodes>
          <leafValues>
            -6.7980015277862549e-01 4.4786819815635681e-01</leafValues></_>
        <_>
          <internalNodes>
            0 -1 57 -5.9426827356219292e-03</internalNodes>
          <leafValues>
            -6.1705917119979858e-01 4.5651468634605408e-01</leafValues></_>
        <_>
          <internalNodes>
            0 -1 52 -2.3096743971109390e-03</internalNodes>
          <leafValues>
            -7.3903417587280273e-01 3.2207453250885010e-01</leafValues></_>
        <_>
          <internalNodes>
            0 -1 43 2.4615810252726078e-03</internalNodes>
          <leafValues>
            -4.3677687644958496e-01 7.1467989683151245e-01</leafValues></_></weakClassifiers></_>
    <!-- stage 16 -->
    <_>
      <maxWeakCount>5</maxWeakCount>
      <stageThreshold>8.3732627332210541e-02</stageThreshold>
      <weakClassifiers>
        <_>
          <internalNodes>
            0 -1 26 1.6720553394407034e-03</internalNodes>
          <leafValues>
            3.9382912687874452e-17 8.6956518888473511e-01</leafValues></_>
        <_>
          <internalNodes>
            0 -1 46 -1.3618687808047980e-04</internalNodes>
          <leafValues>
            -2.9306912422180176e-01 5.9823048114776611e-01</leafValues></_>
        <_>
          <internalNodes>
            0 -1 129 1.4728851383551955e-03</internalNodes>
          <leafValues>
            -3.2321953773498535e-01 6.6904038190841675e-01</leafValues></_>
        <_>
          <internalNodes>
            0 -1 104 2.3556817322969437e-03</internalNodes>
          <leafValues>
            -4.8154172301292419e-01 4.5432546734809875e-01</leafValues></_>
        <_>
          <internalNodes>
            0 -1 72 -2.9941335320472717e-02</internalNodes>
          <leafValues>
            -6.2386935949325562e-01 4.4921195507049561e-01</leafValues></_></weakClassifiers></_>
    <!-- stage 17 -->
    <_>
      <maxWeakCount>5</maxWeakCount>
      <stageThreshold>-3.8181647658348083e-02</stageThreshold>
      <weakClassifiers>
        <_>
          <internalNodes>
            0 -1 11 -2.7651635464280844e-03</internalNodes>
          <leafValues>
            -3.5294118523597717e-01 6.0465115308761597e-01</leafValues></_>
        <_>
          <internalNodes>
            0 -1 117 -6.0418685898184776e-03</internalNodes>
          <leafValues>
            7.7848035097122192e-01 -2.7027189731597900e-01</leafValues></_>
        <_>
          <internalNodes>
            0 -1 131 1.9187707221135497e-04</internalNodes>
          <leafValues>
            -2.9193025827407837e-01 9.5572799444198608e-01</leafValues></_>
        <_>
          <internalNodes>
            0 -1 116 -2.0628579659387469e-04</internalNodes>
          <leafValues>
            -6.5703916549682617e-01 4.3020120263099670e-01</leafValues></_>
        <_>
          <internalNodes>
            0 -1 6 3.4812510013580322e-02</internalNodes>
          <leafValues>
            -4.7234377264976501e-01 6.3658297061920166e-01</leafValues></_></weakClassifiers></_>
    <!-- stage 18 -->
    <_>
      <maxWeakCount>3</maxWeakCount>
      <stageThreshold>1.3355582952499390e-01</stageThreshold>
      <weakClassifiers>
        <_>
          <internalNodes>
            0 -1 3 3.9960462599992752e-02</internalNodes>
          <leafValues>
            3.6144576966762543e-02 1.</leafValues></_>
        <_>
          <internalNodes>
            0 -1 42 1.9787410274147987e-03</internalNodes>
          <leafValues>
            -2.9572764039039612e-01 7.0479297637939453e-01</leafValues></_>
        <_>
          <internalNodes>
            0 -1 70 -7.2819954948499799e-04</internalNodes>
          <leafValues>
            -5.7071650028228760e-01 5.0685918331146240e-01</leafValues></_></weakClassifiers></_>
    <!-- stage 19 -->
    <_>
      <maxWeakCount>5</maxWeakCount>
      <stageThreshold>-3.2541427016258240e-01</stageThreshold>
      <weakClassifiers>
        <_>
          <internalNodes>
            0 -1 93 -1.6947414260357618e-03</internalNodes>
          <leafValues>
            -5.0000000000000000e-01 5.8695650100708008e-01</leafValues></_>
        <_>
          <internalNodes>
            0 -1 124 -5.3436099551618099e-04</internalNodes>
          <leafValues>
            -3.9650180935859680e-01 5.7775330543518066e-01</leafValues></_>
        <_>
          <internalNodes>
            0 -1 127 7.8537315130233765e-03</internalNodes>
          <leafValues>
            3.3060657978057861e-01 -8.6058306694030762e-01</leafValues></_>
        <_>
          <internalNodes>
            0 -1 90 -2.0421959459781647e-02</internalNodes>
          <leafValues>
            1. -3.1025478243827820e-01</leafValues></_>
        <_>
          <internalNodes>
            0 -1 71 6.7054472863674164e-02</internalNodes>
          <leafValues>
            -3.1928622722625732e-01 9.1136670112609863e-01</leafValues></_></weakClassifiers></_>
    <!-- stage 20 -->
    <_>
      <maxWeakCount>5</maxWeakCount>
      <stageThreshold>-5.6976896524429321e-01</stageThreshold>
      <weakClassifiers>
        <_>
          <internalNodes>
            0 -1 40 1.6762276645749807e-03</internalNodes>
          <leafValues>
            5.5102038383483887e-01 -6.3636362552642822e-01</leafValues></_>
        <_>
          <internalNodes>
            0 -1 25 1.7115212976932526e-03</internalNodes>
          <leafValues>
            4.5706662535667419e-01 -5.5251282453536987e-01</leafValues></_>
        <_>
          <internalNodes>
            0 -1 29 -9.9389981478452682e-03</internalNodes>
          <leafValues>
            -5.4570263624191284e-01 5.1040804386138916e-01</leafValues></_>
        <_>
          <internalNodes>
            0 -1 113 -3.7919089198112488e-02</internalNodes>
          <leafValues>
            5.4592919349670410e-01 -5.3187906742095947e-01</leafValues></_>
        <_>
          <internalNodes>
            0 -1 125 -4.2559331632219255e-04</internalNodes>
          <leafValues>
            -5.6850314140319824e-01 4.7345286607742310e-01</leafValues></_></weakClassifiers></_>
    <!-- stage 21 -->
    <_>
      <maxWeakCount>5</maxWeakCount>
      <stageThreshold>8.5661791265010834e-02</stageThreshold>
      <weakClassifiers>
        <_>
          <internalNodes>
            0 -1 74 1.7632029484957457e-03</internalNodes>
          <leafValues>
            5.9550559520721436e-01 -4.1935482621192932e-01</leafValues></_>
        <_>
          <internalNodes>
            0 -1 58 -8.0988148692995310e-04</internalNodes>
          <leafValues>
            6.0405635833740234e-01 -3.8879200816154480e-01</leafValues></_>
        <_>
          <internalNodes>
            0 -1 68 3.0860560946166515e-04</internalNodes>
          <leafValues>
            4.7406160831451416e-01 -4.8100674152374268e-01</leafValues></_>
        <_>
          <internalNodes>
            0 -1 114 -6.6400524228811264e-03</internalNodes>
          <leafValues>
            9.1155612468719482e-01 -2.9378193616867065e-01</leafValues></_>
        <_>
          <internalNodes>
            0 -1 92 6.3914380967617035e-02</internalNodes>
          <leafValues>
            -2.7931943535804749e-01 7.9984623193740845e-01</leafValues></_></weakClassifiers></_>
    <!-- stage 22 -->
    <_>
      <maxWeakCount>6</maxWeakCount>
      <stageThreshold>8.3616815507411957e-02</stageThreshold>
      <weakClassifiers>
        <_>
          <internalNodes>
            0 -1 101 -2.4844639003276825e-01</internalNodes>
          <leafValues>
            -8.4615385532379150e-01 4.7663551568984985e-01</leafValues></_>
        <_>
          <internalNodes>
            0 -1 108 -6.4940436277538538e-04</internalNodes>
          <leafValues>
            6.7638772726058960e-01 -3.6445567011833191e-01</leafValues></_>
        <_>
          <internalNodes>
            0 -1 24 6.9599673151969910e-02</internalNodes>
          <leafValues>
            -4.2183330655097961e-01 6.4599055051803589e-01</leafValues></_>
        <_>
          <internalNodes>
            0 -1 30 -4.4067040085792542e-02</internalNodes>
          <leafValues>
            7.6202577352523804e-01 -3.6585769057273865e-01</leafValues></_>
        <_>
          <internalNodes>
            0 -1 55 5.1224132766947150e-04</internalNodes>
          <leafValues>
            5.6117331981658936e-01 -4.8059603571891785e-01</leafValues></_>
        <_>
          <internalNodes>
            0 -1 110 3.3920407295227051e-02</internalNodes>
          <leafValues>
            2.9747343063354492e-01 -9.2900282144546509e-01</leafValues></_></weakClassifiers></_>
    <!-- stage 23 -->
    <_>
      <maxWeakCount>6</maxWeakCount>
      <stageThreshold>2.3867878317832947e-01</stageThreshold>
      <weakClassifiers>
        <_>
          <internalNodes>
            0 -1 4 -6.5209716558456421e-03</internalNodes>
          <leafValues>
            -3.5483869910240173e-01 5.7303369045257568e-01</leafValues></_>
        <_>
          <internalNodes>
            0 -1 36 1.7265783250331879e-01</internalNodes>
          <leafValues>
            -3.0686825513839722e-01 7.0765972137451172e-01</leafValues></_>
        <_>
          <internalNodes>
            0 -1 34 1.1566327884793282e-03</internalNodes>
          <leafValues>
            3.5725754499435425e-01 -7.1185904741287231e-01</leafValues></_>
        <_>
          <internalNodes>
            0 -1 62 1.5516328858211637e-03</internalNodes>
          <leafValues>
            6.3542532920837402e-01 -3.8317114114761353e-01</leafValues></_>
        <_>
          <internalNodes>
            0 -1 118 -1.9934824376832694e-04</internalNodes>
          <leafValues>
            7.2492820024490356e-01 -3.3903533220291138e-01</leafValues></_>
        <_>
          <internalNodes>
            0 -1 1 3.2867856789380312e-03</internalNodes>
          <leafValues>
            3.9205086231231689e-01 -6.5002828836441040e-01</leafValues></_></weakClassifiers></_>
    <!-- stage 24 -->
    <_>
      <maxWeakCount>4</maxWeakCount>
      <stageThreshold>1.8802741542458534e-03</stageThreshold>
      <weakClassifiers>
        <_>
          <internalNodes>
            0 -1 133 -3.0979402363300323e-03</internalNodes>
          <leafValues>
            -7.2727274894714355e-01 5.7142859697341919e-01</leafValues></_>
        <_>
          <internalNodes>
            0 -1 81 -1.1882584542036057e-02</internalNodes>
          <leafValues>
            5.9954416751861572e-01 -3.4489366412162781e-01</leafValues></_>
        <_>
          <internalNodes>
            0 -1 12 -1.0658975224941969e-03</internalNodes>
          <leafValues>
            -6.6949307918548584e-01 4.0887728333473206e-01</leafValues></_>
        <_>
          <internalNodes>
            0 -1 17 -3.1802691519260406e-03</internalNodes>
          <leafValues>
            6.8916589021682739e-01 -4.9959939718246460e-01</leafValues></_></weakClassifiers></_>
    <!-- stage 25 -->
    <_>
      <maxWeakCount>6</maxWeakCount>
      <stageThreshold>-5.2641354501247406e-02</stageThreshold>
      <weakClassifiers>
        <_>
          <internalNodes>
            0 -1 66 -1.3939344789832830e-03</internalNodes>
          <leafValues>
            -4.6153846383094788e-01 5.5319148302078247e-01</leafValues></_>
        <_>
          <internalNodes>
            0 -1 130 1.0809446685016155e-03</internalNodes>
          <leafValues>
            -2.6024380326271057e-01 7.8724694252014160e-01</leafValues></_>
        <_>
          <internalNodes>
            0 -1 50 -4.3765075504779816e-02</internalNodes>
          <leafValues>
            3.6824977397918701e-01 -5.8225917816162109e-01</leafValues></_>
        <_>
          <internalNodes>
            0 -1 75 -2.3223590105772018e-03</internalNodes>
          <leafValues>
            -6.0635101795196533e-01 3.8825640082359314e-01</leafValues></_>
        <_>
          <internalNodes>
            0 -1 89 -1.1644315905869007e-02</internalNodes>
          <leafValues>
            8.2424461841583252e-01 -3.4356155991554260e-01</leafValues></_>
        <_>
          <internalNodes>
            0 -1 9 -2.7811456471681595e-02</internalNodes>
          <leafValues>
            -7.5853365659713745e-01 4.0063455700874329e-01</leafValues></_></weakClassifiers></_>
    <!-- stage 26 -->
    <_>
      <maxWeakCount>5</maxWeakCount>
      <stageThreshold>-5.0421059131622314e-01</stageThreshold>
      <weakClassifiers>
        <_>
          <internalNodes>
            0 -1 19 6.3238954171538353e-03</internalNodes>
          <leafValues>
            5.1999998092651367e-01 -6.0000002384185791e-01</leafValues></_>
        <_>
          <internalNodes>
            0 -1 99 1.1169024219270796e-04</internalNodes>
          <leafValues>
            4.4425019621849060e-01 -4.7647225856781006e-01</leafValues></_>
        <_>
          <internalNodes>
            0 -1 38 -9.1126691550016403e-03</internalNodes>
          <leafValues>
            6.2146157026290894e-01 -3.5616931319236755e-01</leafValues></_>
        <_>
          <internalNodes>
            0 -1 119 7.7797734411433339e-04</internalNodes>
          <leafValues>
            3.4067064523696899e-01 -7.6407849788665771e-01</leafValues></_>
        <_>
          <internalNodes>
            0 -1 111 -2.7425915002822876e-02</internalNodes>
          <leafValues>
            4.3029609322547913e-01 -5.3223967552185059e-01</leafValues></_></weakClassifiers></_>
    <!-- stage 27 -->
    <_>
      <maxWeakCount>5</maxWeakCount>
      <stageThreshold>-1.2075875699520111e-01</stageThreshold>
      <weakClassifiers>
        <_>
          <internalNodes>
            0 -1 0 -1.1806114343926311e-03</internalNodes>
          <leafValues>
            -2.3809523880481720e-01 6.4102566242218018e-01</leafValues></_>
        <_>
          <internalNodes>
            0 -1 136 2.7347232680767775e-03</internalNodes>
          <leafValues>
            4.0512648224830627e-01 -7.0961576700210571e-01</leafValues></_>
        <_>
          <internalNodes>
            0 -1 73 -2.7289235731586814e-04</internalNodes>
          <leafValues>
            4.7240442037582397e-01 -4.7527432441711426e-01</leafValues></_>
        <_>
          <internalNodes>
            0 -1 8 -1.5961662866175175e-03</internalNodes>
          <leafValues>
            -8.6394941806793213e-01 3.2969188690185547e-01</leafValues></_>
        <_>
          <internalNodes>
            0 -1 31 7.2542385896667838e-04</internalNodes>
          <leafValues>
            3.0248689651489258e-01 -7.7536588907241821e-01</leafValues></_></weakClassifiers></_>
    <!-- stage 28 -->
    <_>
      <maxWeakCount>5</maxWeakCount>
      <stageThreshold>3.3514830470085144e-01</stageThreshold>
      <weakClassifiers>
        <_>
          <internalNodes>
            0 -1 100 -1.0742151644080877e-03</internalNodes>
          <leafValues>
            -4.6153846383094788e-01 5.5319148302078247e-01</leafValues></_>
        <_>
          <internalNodes>
            0 -1 59 2.4748463183641434e-03</internalNodes>
          <leafValues>
            -2.9357045888900757e-01 7.4332499504089355e-01</leafValues></_>
        <_>
          <internalNodes>
            0 -1 45 -1.1927031911909580e-02</internalNodes>
          <leafValues>
            -2.6344412565231323e-01 7.4118477106094360e-01</leafValues></_>
        <_>
          <internalNodes>
            0 -1 96 4.1935015469789505e-03</internalNodes>
          <leafValues>
            -3.6064955592155457e-01 6.4974743127822876e-01</leafValues></_>
        <_>
          <internalNodes>
            0 -1 128 4.9417014233767986e-03</internalNodes>
          <leafValues>
            -3.0500793457031250e-01 8.8710463047027588e-01</leafValues></_></weakClassifiers></_>
    <!-- stage 29 -->
    <_>
      <maxWeakCount>5</maxWeakCount>
      <stageThreshold>-2.2957727313041687e-01</stageThreshold>
      <weakClassifiers>
        <_>
          <internalNodes>
            0 -1 20 -4.1059814393520355e-03</internalNodes>
          <leafValues>
            -7.5000000000000000e-01 5.0000000000000000e-01</leafValues></_>
        <_>
          <internalNodes>
            0 -1 32 8.4559870883822441e-03</internalNodes>
          <leafValues>
            -4.1211557388305664e-01 5.7429558038711548e-01</leafValues></_>
        <_>
          <internalNodes>
            0 -1 54 -7.0344528649002314e-04</internalNodes>
          <leafValues>
            7.9171109199523926e-01 -2.8834265470504761e-01</leafValues></_>
        <_>
          <internalNodes>
            0 -1 2 6.1352431657724082e-05</internalNodes>
          <leafValues>
            -4.0210807323455811e-01 6.9833457469940186e-01</leafValues></_>
        <_>
          <internalNodes>
            0 -1 48 7.2236275300383568e-03</internalNodes>
          <leafValues>
            -6.1342215538024902e-01 4.2913332581520081e-01</leafValues></_></weakClassifiers></_></stages>
  <features>
    <_>
      <rects>
        <_>
          0 0 2 8 -1.</_>
        <_>
          1 0 1 8 2.</_></rects>
      <tilted>0</tilted></_>
    <_>
      <rects>
        <_>
          0 0 2 9 -1.</_>
        <_>
          0 3 2 3 3.</_></rects>
      <tilted>0</tilted></_>
    <_>
      <rects>
        <_>
          0 1 1 2 -1.</_>
        <_>
          0 2 1 1 2.</_></rects>
      <tilted>0</tilted></_>
    <_>
      <rects>
        <_>
          0 3 20 10 -1.</_>
        <_>
          10 3 10 10 2.</_></rects>
      <tilted>0</tilted></_>
    <_>
      <rects>
        <_>
          0 4 4 16 -1.</_>
        <_>
          2 4 2 16 2.</_></rects>
      <tilted>0</tilted></_>
    <_>
      <rects>
        <_>
          0 7 12 8 -1.</_>
        <_>
          0 7 6 4 2.</_>
        <_>
          6 11 6 4 2.</_></rects>
      <tilted>0</tilted></_>
    <_>
      <rects>
        <_>
          0 8 12 6 -1.</_>
        <_>
          0 8 6 3 2.</_>
        <_>
          6 11 6 3 2.</_></rects>
      <tilted>0</tilted></_>
    <_>
      <rects>
        <_>
          0 9 3 6 -1.</_>
        <_>
          1 9 1 6 3.</_></rects>
      <tilted>0</tilted></_>
    <_>
      <rects>
        <_>
          0 12 2 4 -1.</_>
        <_>
          0 12 1 2 2.</_>
        <_>
          1 14 1 2 2.</_></rects>
      <tilted>0</tilted></_>
    <_>
      <rects>
        <_>
          0 12 7 6 -1.</_>
        <_>
          0 15 7 3 2.</_></rects>
      <tilted>0</tilted></_>
    <_>
      <rects>
        <_>
          0 14 4 6 -1.</_>
        <_>
          2 14 2 6 2.</_></rects>
      <tilted>0</tilted></_>
    <_>
      <rects>
        <_>
          0 14 7 6 -1.</_>
        <_>
          0 16 7 2 3.</_></rects>
      <tilted>0</tilted></_>
    <_>
      <rects>
        <_>
          0 15 3 3 -1.</_>
        <_>
          0 16 3 1 3.</_></rects>
      <tilted>0</tilted></_>
    <_>
      <rects>
        <_>
          0 17 12 2 -1.</_>
        <_>
          0 17 6 1 2.</_>
        <_>
          6 18 6 1 2.</_></rects>
      <tilted>0</tilted></_>
    <_>
      <rects>
        <_>
          0 18 12 1 -1.</_>
        <_>
          6 18 6 1 2.</_></rects>
      <tilted>0</tilted></_>
    <_>
      <rects>
        <_>
          0 19 9 1 -1.</_>
        <_>
          3 19 3 1 3.</_></rects>
      <tilted>0</tilted></_>
    <_>
      <rects>
        <_>
          1 0 14 2 -1.</_>
        <_>
          1 0 7 1 2.</_>
        <_>
          8 1 7 1 2.</_></rects>
      <tilted>0</tilted></_>
    <_>
      <rects>
        <_>
          1 2 17 2 -1.</_>
        <_>
          1 3 17 1 2.</_></rects>
      <tilted>0</tilted></_>
    <_>
      <rects>
        <_>
          1 3 2 6 -1.</_>
        <_>
          2 3 1 6 2.</_></rects>
      <tilted>0</tilted></_>
    <_>
      <rects>
        <_>
          1 4 3 5 -1.</_>
        <_>
          2 4 1 5 3.</_></rects>
      <tilted>0</tilted></_>
    <_>
      <rects>
        <_>
          1 5 4 2 -1.</_>
        <_>
          3 5 2 2 2.</_></rects>
      <tilted>0</tilted></_>
    <_>
      <rects>
        <_>
          1 5 18 14 -1.</_>
        <_>
          7 5 6 14 3.</_></rects>
      <tilted>0</tilted></_>
    <_>
      <rects>
        <_>
          1 6 6 6 -1.</_>
        <_>
          1 8 6 2 3.</_></rects>
      <tilted>0</tilted></_>
    <_>
      <rects>
        <_>
          1 10 11 4 -1.</_>
        <_>
          1 12 11 2 2.</_></rects>
      <tilted>0</tilted></_>
    <_>
      <rects>
        <_>
          1 10 11 9 -1.</_>
        <_>
          1 13 11 3 3.</_></rects>
      <tilted>0</tilted></_>
    <_>
      <rects>
        <_>
          1 12 4 4 -1.</_>
        <_>
          1 12 2 2 2.</_>
        <_>
          3 14 2 2 2.</_></rects>
      <tilted>0</tilted></_>
    <_>
      <rects>
        <_>
          2 1 6 2 -1.</_>
        <_>
          5 1 3 2 2.</_></rects>
      <tilted>0</tilted></_>
    <_>
      <rects>
        <_>
          2 11 3 9 -1.</_>
        <_>
          3 11 1 9 3.</_></rects>
      <tilted>0</tilted></_>
    <_>
      <rects>
        <_>
          2 12 15 6 -1.</_>
        <_>
          7 12 5 6 3.</_></rects>
      <tilted>0</tilted></_>
    <_>
      <rects>
        <_>
          2 12 18 6 -1.</_>
        <_>
          2 12 9 3 2.</_>
        <_>
          11 15 9 3 2.</_></rects>
      <tilted>0</tilted></_>
    <_>
      <rects>
        <_>
          2 12 18 6 -1.</_>
        <_>
          2 14 18 2 3.</_></rects>
      <tilted>0</tilted></_>
    <_>
      <rects>
        <_>
          2 14 3 1 -1.</_>
        <_>
          3 14 1 1 3.</_></rects>
      <tilted>0</tilted></_>
    <_>
      <rects>
        <_>
          2 14 10 5 -1.</_>
        <_>
          7 14 5 5 2.</_></rects>
      <tilted>0</tilted></_>
    <_>
      <rects>
        <_>
          2 15 10 3 -1.</_>
        <_>
          7 15 5 3 2.</_></rects>
      <tilted>0</tilted></_>
    <_>
      <rects>
        <_>
          2 19 6 1 -1.</_>
        <_>
          5 19 3 1 2.</_></rects>
      <tilted>0</tilted></_>
    <_>
      <rects>
        <_>
          3 2 1 16 -1.</_>
        <_>
          3 10 1 8 2.</_></rects>
      <tilted>0</tilted></_>
    <_>
      <rects>
        <_>
          3 8 15 10 -1.</_>
        <_>
          8 8 5 10 3.</_></rects>
      <tilted>0</tilted></_>
    <_>
      <rects>
        <_>
          3 8 11 3 -1.</_>
        <_>
          3 9 11 1 3.</_></rects>
      <tilted>0</tilted></_>
    <_>
      <rects>
        <_>
          3 10 6 7 -1.</_>
        <_>
          5 10 2 7 3.</_></rects>
      <tilted>0</tilted></_>
    <_>
      <rects>
        <_>
          3 12 15 5 -1.</_>
        <_>
          8 12 5 5 3.</_></rects>
      <tilted>0</tilted></_>
    <_>
      <rects>
        <_>
          3 17 6 2 -1.</_>
        <_>
          3 17 3 1 2.</_>
        <_>
          6 18 3 1 2.</_></rects>
      <tilted>0</tilted></_>
    <_>
      <rects>
        <_>
          3 19 3 1 -1.</_>
        <_>
          4 19 1 1 3.</_></rects>
      <tilted>0</tilted></_>
    <_>
      <rects>
        <_>
          4 0 10 3 -1.</_>
        <_>
          4 1 10 1 3.</_></rects>
      <tilted>0</tilted></_>
    <_>
      <rects>
        <_>
          4 2 9 6 -1.</_>
        <_>
          4 4 9 2 3.</_></rects>
      <tilted>0</tilted></_>
    <_>
      <rects>
        <_>
          4 4 7 2 -1.</_>
        <_>
          4 5 7 1 2.</_></rects>
      <tilted>0</tilted></_>
    <_>
      <rects>
        <_>
          4 4 14 16 -1.</_>
        <_>
          4 4 7 8 2.</_>
        <_>
          11 12 7 8 2.</_></rects>
      <tilted>0</tilted></_>
    <_>
      <rects>
        <_>
          4 5 3 6 -1.</_>
        <_>
          5 5 1 6 3.</_></rects>
      <tilted>0</tilted></_>
    <_>
      <rects>
        <_>
          4 5 10 12 -1.</_>
        <_>
          4 5 5 6 2.</_>
        <_>
          9 11 5 6 2.</_></rects>
      <tilted>0</tilted></_>
    <_>
      <rects>
        <_>
          4 6 6 10 -1.</_>
        <_>
          4 6 3 5 2.</_>
        <_>
          7 11 3 5 2.</_></rects>
      <tilted>0</tilted></_>
    <_>
      <rects>
        <_>
          4 6 8 10 -1.</_>
        <_>
          8 6 4 10 2.</_></rects>
      <tilted>0</tilted></_>
    <_>
      <rects>
        <_>
          4 7 16 13 -1.</_>
        <_>
          12 7 8 13 2.</_></rects>
      <tilted>0</tilted></_>
    <_>
      <rects>
        <_>
          4 8 3 11 -1.</_>
        <_>
          5 8 1 11 3.</_></rects>
      <tilted>0</tilted></_>
    <_>
      <rects>
        <_>
          4 12 2 8 -1.</_>
        <_>
          4 12 1 4 2.</_>
        <_>
          5 16 1 4 2.</_></rects>
      <tilted>0</tilted></_>
    <_>
      <rects>
        <_>
          4 12 6 3 -1.</_>
        <_>
          6 12 2 3 3.</_></rects>
      <tilted>0</tilted></_>
    <_>
      <rects>
        <_>
          4 13 4 2 -1.</_>
        <_>
          6 13 2 2 2.</_></rects>
      <tilted>0</tilted></_>
    <_>
      <rects>
        <_>
          4 16 2 3 -1.</_>
        <_>
          5 16 1 3 2.</_></rects>
      <tilted>0</tilted></_>
    <_>
      <rects>
        <_>
          4 17 3 3 -1.</_>
        <_>
          5 17 1 3 3.</_></rects>
      <tilted>0</tilted></_>
    <_>
      <rects>
        <_>
          4 17 16 1 -1.</_>
        <_>
          12 17 8 1 2.</_></rects>
      <tilted>0</tilted></_>
    <_>
      <rects>
        <_>
          5 0 3 20 -1.</_>
        <_>
          6 0 1 20 3.</_></rects>
      <tilted>0</tilted></_>
    <_>
      <rects>
        <_>
          5 0 7 3 -1.</_>
        <_>
          5 1 7 1 3.</_></rects>
      <tilted>0</tilted></_>
    <_>
      <rects>
        <_>
          5 4 7 2 -1.</_>
        <_>
          5 5 7 1 2.</_></rects>
      <tilted>0</tilted></_>
    <_>
      <rects>
        <_>
          5 6 6 7 -1.</_>
        <_>
          7 6 2 7 3.</_></rects>
      <tilted>0</tilted></_>
    <_>
      <rects>
        <_>
          5 8 6 4 -1.</_>
        <_>
          5 8 3 2 2.</_>
        <_>
          8 10 3 2 2.</_></rects>
      <tilted>0</tilted></_>
    <_>
      <rects>
        <_>
          5 13 6 6 -1.</_>
        <_>
          5 13 3 3 2.</_>
        <_>
          8 16 3 3 2.</_></rects>
      <tilted>0</tilted></_>
    <_>
      <rects>
        <_>
          5 13 8 6 -1.</_>
        <_>
          5 15 8 2 3.</_></rects>
      <tilted>0</tilted></_>
    <_>
      <rects>
        <_>
          5 14 10 2 -1.</_>
        <_>
          5 15 10 1 2.</_></rects>
      <tilted>0</tilted></_>
    <_>
      <rects>
        <_>
          5 16 3 4 -1.</_>
        <_>
          6 16 1 4 3.</_></rects>
      <tilted>0</tilted></_>
    <_>
      <rects>
        <_>
          6 1 6 7 -1.</_>
        <_>
          9 1 3 7 2.</_></rects>
      <tilted>0</tilted></_>
    <_>
      <rects>
        <_>
          6 3 1 6 -1.</_>
        <_>
          6 5 1 2 3.</_></rects>
      <tilted>0</tilted></_>
    <_>
      <rects>
        <_>
          6 4 6 2 -1.</_>
        <_>
          8 4 2 2 3.</_></rects>
      <tilted>0</tilted></_>
    <_>
      <rects>
        <_>
          6 7 3 3 -1.</_>
        <_>
          6 8 3 1 3.</_></rects>
      <tilted>0</tilted></_>
    <_>
      <rects>
        <_>
          6 7 6 9 -1.</_>
        <_>
          6 10 6 3 3.</_></rects>
      <tilted>0</tilted></_>
    <_>
      <rects>
        <_>
          6 9 12 3 -1.</_>
        <_>
          12 9 6 3 2.</_></rects>
      <tilted>0</tilted></_>
    <_>
      <rects>
        <_>
          6 15 2 2 -1.</_>
        <_>
          6 16 2 1 2.</_></rects>
      <tilted>0</tilted></_>
    <_>
      <rects>
        <_>
          6 17 7 3 -1.</_>
        <_>
          6 18 7 1 3.</_></rects>
      <tilted>0</tilted></_>
    <_>
      <rects>
        <_>
          7 6 3 4 -1.</_>
        <_>
          8 6 1 4 3.</_></rects>
      <tilted>0</tilted></_>
    <_>
      <rects>
        <_>
          7 6 3 3 -1.</_>
        <_>
          7 7 3 1 3.</_></rects>
      <tilted>0</tilted></_>
    <_>
      <rects>
        <_>
          7 7 11 6 -1.</_>
        <_>
          7 9 11 2 3.</_></rects>
      <tilted>0</tilted></_>
    <_>
      <rects>
        <_>
          7 11 12 4 -1.</_>
        <_>
          7 11 6 2 2.</_>
        <_>
          13 13 6 2 2.</_></rects>
      <tilted>0</tilted></_>
    <_>
      <rects>
        <_>
          7 13 5 4 -1.</_>
        <_>
          7 15 5 2 2.</_></rects>
      <tilted>0</tilted></_>
    <_>
      <rects>
        <_>
          7 13 10 4 -1.</_>
        <_>
          7 13 5 2 2.</_>
        <_>
          12 15 5 2 2.</_></rects>
      <tilted>0</tilted></_>
    <_>
      <rects>
        <_>
          7 14 10 6 -1.</_>
        <_>
          7 16 10 2 3.</_></rects>
      <tilted>0</tilted></_>
    <_>
      <rects>
        <_>
          7 14 13 6 -1.</_>
        <_>
          7 16 13 2 3.</_></rects>
      <tilted>0</tilted></_>
    <_>
      <rects>
        <_>
          7 18 8 2 -1.</_>
        <_>
          11 18 4 2 2.</_></rects>
      <tilted>0</tilted></_>
    <_>
      <rects>
        <_>
          8 0 6 15 -1.</_>
        <_>
          8 5 6 5 3.</_></rects>
      <tilted>0</tilted></_>
    <_>
      <rects>
        <_>
          8 1 5 15 -1.</_>
        <_>
          8 6 5 5 3.</_></rects>
      <tilted>0</tilted></_>
    <_>
      <rects>
        <_>
          8 4 10 2 -1.</_>
        <_>
          13 4 5 2 2.</_></rects>
      <tilted>0</tilted></_>
    <_>
      <rects>
        <_>
          8 4 12 13 -1.</_>
        <_>
          14 4 6 13 2.</_></rects>
      <tilted>0</tilted></_>
    <_>
      <rects>
        <_>
          8 5 12 9 -1.</_>
        <_>
          8 8 12 3 3.</_></rects>
      <tilted>0</tilted></_>
    <_>
      <rects>
        <_>
          8 9 6 4 -1.</_>
        <_>
          8 9 3 2 2.</_>
        <_>
          11 11 3 2 2.</_></rects>
      <tilted>0</tilted></_>
    <_>
      <rects>
        <_>
          8 9 5 6 -1.</_>
        <_>
          8 11 5 2 3.</_></rects>
      <tilted>0</tilted></_>
    <_>
      <rects>
        <_>
          8 9 5 9 -1.</_>
        <_>
          8 12 5 3 3.</_></rects>
      <tilted>0</tilted></_>
    <_>
      <rects>
        <_>
          8 10 7 6 -1.</_>
        <_>
          8 12 7 2 3.</_></rects>
      <tilted>0</tilted></_>
    <_>
      <rects>
        <_>
          8 11 3 1 -1.</_>
        <_>
          9 11 1 1 3.</_></rects>
      <tilted>0</tilted></_>
    <_>
      <rects>
        <_>
          8 11 10 5 -1.</_>
        <_>
          13 11 5 5 2.</_></rects>
      <tilted>0</tilted></_>
    <_>
      <rects>
        <_>
          8 11 6 3 -1.</_>
        <_>
          8 12 6 1 3.</_></rects>
      <tilted>0</tilted></_>
    <_>
      <rects>
        <_>
          8 12 3 7 -1.</_>
        <_>
          9 12 1 7 3.</_></rects>
      <tilted>0</tilted></_>
    <_>
      <rects>
        <_>
          8 12 6 8 -1.</_>
        <_>
          11 12 3 8 2.</_></rects>
      <tilted>0</tilted></_>
    <_>
      <rects>
        <_>
          8 12 10 8 -1.</_>
        <_>
          13 12 5 8 2.</_></rects>
      <tilted>0</tilted></_>
    <_>
      <rects>
        <_>
          8 17 2 2 -1.</_>
        <_>
          8 17 1 1 2.</_>
        <_>
          9 18 1 1 2.</_></rects>
      <tilted>0</tilted></_>
    <_>
      <rects>
        <_>
          8 17 3 2 -1.</_>
        <_>
          8 18 3 1 2.</_></rects>
      <tilted>0</tilted></_>
    <_>
      <rects>
        <_>
          9 0 10 17 -1.</_>
        <_>
          14 0 5 17 2.</_></rects>
      <tilted>0</tilted></_>
    <_>
      <rects>
        <_>
          9 2 2 15 -1.</_>
        <_>
          10 2 1 15 2.</_></rects>
      <tilted>0</tilted></_>
    <_>
      <rects>
        <_>
          9 7 6 10 -1.</_>
        <_>
          9 7 3 5 2.</_>
        <_>
          12 12 3 5 2.</_></rects>
      <tilted>0</tilted></_>
    <_>
      <rects>
        <_>
          9 11 3 4 -1.</_>
        <_>
          10 11 1 4 3.</_></rects>
      <tilted>0</tilted></_>
    <_>
      <rects>
        <_>
          9 12 9 8 -1.</_>
        <_>
          12 12 3 8 3.</_></rects>
      <tilted>0</tilted></_>
    <_>
      <rects>
        <_>
          9 15 10 4 -1.</_>
        <_>
          9 15 5 2 2.</_>
        <_>
          14 17 5 2 2.</_></rects>
      <tilted>0</tilted></_>
    <_>
      <rects>
        <_>
          10 1 2 15 -1.</_>
        <_>
          10 6 2 5 3.</_></rects>
      <tilted>0</tilted></_>
    <_>
      <rects>
        <_>
          10 4 4 6 -1.</_>
        <_>
          12 4 2 6 2.</_></rects>
      <tilted>0</tilted></_>
    <_>
      <rects>
        <_>
          10 8 9 9 -1.</_>
        <_>
          13 8 3 9 3.</_></rects>
      <tilted>0</tilted></_>
    <_>
      <rects>
        <_>
          10 8 8 10 -1.</_>
        <_>
          10 8 4 5 2.</_>
        <_>
          14 13 4 5 2.</_></rects>
      <tilted>0</tilted></_>
    <_>
      <rects>
        <_>
          10 9 9 8 -1.</_>
        <_>
          13 9 3 8 3.</_></rects>
      <tilted>0</tilted></_>
    <_>
      <rects>
        <_>
          10 10 2 6 -1.</_>
        <_>
          11 10 1 6 2.</_></rects>
      <tilted>0</tilted></_>
    <_>
      <rects>
        <_>
          10 10 9 10 -1.</_>
        <_>
          13 10 3 10 3.</_></rects>
      <tilted>0</tilted></_>
    <_>
      <rects>
        <_>
          10 11 8 6 -1.</_>
        <_>
          10 11 4 3 2.</_>
        <_>
          14 14 4 3 2.</_></rects>
      <tilted>0</tilted></_>
    <_>
      <rects>
        <_>
          10 15 9 5 -1.</_>
        <_>
          13 15 3 5 3.</_></rects>
      <tilted>0</tilted></_>
    <_>
      <rects>
        <_>
          10 17 2 2 -1.</_>
        <_>
          10 17 1 1 2.</_>
        <_>
          11 18 1 1 2.</_></rects>
      <tilted>0</tilted></_>
    <_>
      <rects>
        <_>
          11 1 9 6 -1.</_>
        <_>
          11 3 9 2 3.</_></rects>
      <tilted>0</tilted></_>
    <_>
      <rects>
        <_>
          11 7 3 2 -1.</_>
        <_>
          12 7 1 2 3.</_></rects>
      <tilted>0</tilted></_>
    <_>
      <rects>
        <_>
          11 15 2 3 -1.</_>
        <_>
          11 16 2 1 3.</_></rects>
      <tilted>0</tilted></_>
    <_>
      <rects>
        <_>
          11 17 6 3 -1.</_>
        <_>
          11 18 6 1 3.</_></rects>
      <tilted>0</tilted></_>
    <_>
      <rects>
        <_>
          11 18 2 2 -1.</_>
        <_>
          11 18 1 1 2.</_>
        <_>
          12 19 1 1 2.</_></rects>
      <tilted>0</tilted></_>
    <_>
      <rects>
        <_>
          12 0 2 2 -1.</_>
        <_>
          12 1 2 1 2.</_></rects>
      <tilted>0</tilted></_>
    <_>
      <rects>
        <_>
          12 7 2 6 -1.</_>
        <_>
          12 7 1 3 2.</_>
        <_>
          13 10 1 3 2.</_></rects>
      <tilted>0</tilted></_>
    <_>
      <rects>
        <_>
          12 10 5 2 -1.</_>
        <_>
          12 11 5 1 2.</_></rects>
      <tilted>0</tilted></_>
    <_>
      <rects>
        <_>
          12 12 2 2 -1.</_>
        <_>
          12 12 1 1 2.</_>
        <_>
          13 13 1 1 2.</_></rects>
      <tilted>0</tilted></_>
    <_>
      <rects>
        <_>
          12 16 2 2 -1.</_>
        <_>
          12 17 2 1 2.</_></rects>
      <tilted>0</tilted></_>
    <_>
      <rects>
        <_>
          13 0 1 6 -1.</_>
        <_>
          13 2 1 2 3.</_></rects>
      <tilted>0</tilted></_>
    <_>
      <rects>
        <_>
          13 8 4 4 -1.</_>
        <_>
          13 8 2 2 2.</_>
        <_>
          15 10 2 2 2.</_></rects>
      <tilted>0</tilted></_>
    <_>
      <rects>
        <_>
          14 2 2 12 -1.</_>
        <_>
          14 2 1 6 2.</_>
        <_>
          15 8 1 6 2.</_></rects>
      <tilted>0</tilted></_>
    <_>
      <rects>
        <_>
          14 2 6 1 -1.</_>
        <_>
          16 2 2 1 3.</_></rects>
      <tilted>0</tilted></_>
    <_>
      <rects>
        <_>
          14 2 3 2 -1.</_>
        <_>
          14 3 3 1 2.</_></rects>
      <tilted>0</tilted></_>
    <_>
      <rects>
        <_>
          14 8 6 7 -1.</_>
        <_>
          16 8 2 7 3.</_></rects>
      <tilted>0</tilted></_>
    <_>
      <rects>
        <_>
          14 13 2 3 -1.</_>
        <_>
          14 14 2 1 3.</_></rects>
      <tilted>0</tilted></_>
    <_>
      <rects>
        <_>
          14 14 2 6 -1.</_>
        <_>
          14 14 1 3 2.</_>
        <_>
          15 17 1 3 2.</_></rects>
      <tilted>0</tilted></_>
    <_>
      <rects>
        <_>
          14 16 2 2 -1.</_>
        <_>
          14 17 2 1 2.</_></rects>
      <tilted>0</tilted></_>
    <_>
      <rects>
        <_>
          15 12 4 2 -1.</_>
        <_>
          17 12 2 2 2.</_></rects>
      <tilted>0</tilted></_>
    <_>
      <rects>
        <_>
          15 18 2 2 -1.</_>
        <_>
          15 18 1 1 2.</_>
        <_>
          16 19 1 1 2.</_></rects>
      <tilted>0</tilted></_>
    <_>
      <rects>
        <_>
          16 13 3 7 -1.</_>
        <_>
          17 13 1 7 3.</_></rects>
      <tilted>0</tilted></_>
    <_>
      <rects>
        <_>
          16 17 2 3 -1.</_>
        <_>
          16 18 2 1 3.</_></rects>
      <tilted>0</tilted></_>
    <_>
      <rects>
        <_>
          18 0 2 6 -1.</_>
        <_>
          18 0 1 3 2.</_>
        <_>
          19 3 1 3 2.</_></rects>
      <tilted>0</tilted></_></features></cascade>
</opencv_storage>
