<?xml version="1.0"?>
<opencv_storage>
<stage5>
  <maxWeakCount>5</maxWeakCount>
  <stageThreshold>-1.0152279585599899e-01</stageThreshold>
  <weakClassifiers>
    <_>
      <internalNodes>
        0 -1 58029 -2.1631433628499508e-03</internalNodes>
      <leafValues>
        6.8674701452255249e-01 -4.5945945382118225e-01</leafValues></_>
    <_>
      <internalNodes>
        0 -1 27154 7.8078001737594604e-02</internalNodes>
      <leafValues>
        -4.0878143906593323e-01 6.4772778749465942e-01</leafValues></_>
    <_>
      <internalNodes>
        0 -1 76629 -6.4922851743176579e-04</internalNodes>
      <leafValues>
        -5.9481096267700195e-01 5.2388012409210205e-01</leafValues></_>
    <_>
      <internalNodes>
        0 -1 26069 -3.1573448795825243e-03</internalNodes>
      <leafValues>
        6.5710657835006714e-01 -4.7647973895072937e-01</leafValues></_>
    <_>
      <internalNodes>
        0 -1 6952 -6.9262983743101358e-05</internalNodes>
      <leafValues>
        8.4345072507858276e-01 -3.5208675265312195e-01</leafValues></_></weakClassifiers></stage5>
</opencv_storage>
