<?xml version="1.0"?>
<opencv_storage>
<stage21>
  <maxWeakCount>5</maxWeakCount>
  <stageThreshold>8.5661791265010834e-02</stageThreshold>
  <weakClassifiers>
    <_>
      <internalNodes>
        0 -1 45075 1.7632029484957457e-03</internalNodes>
      <leafValues>
        5.9550559520721436e-01 -4.1935482621192932e-01</leafValues></_>
    <_>
      <internalNodes>
        0 -1 34255 -8.0988148692995310e-04</internalNodes>
      <leafValues>
        6.0405635833740234e-01 -3.8879200816154480e-01</leafValues></_>
    <_>
      <internalNodes>
        0 -1 41330 3.0860560946166515e-04</internalNodes>
      <leafValues>
        4.7406160831451416e-01 -4.8100674152374268e-01</leafValues></_>
    <_>
      <internalNodes>
        0 -1 61723 -6.6400524228811264e-03</internalNodes>
      <leafValues>
        9.1155612468719482e-01 -2.9378193616867065e-01</leafValues></_>
    <_>
      <internalNodes>
        0 -1 53623 6.3914380967617035e-02</internalNodes>
      <leafValues>
        -2.7931943535804749e-01 7.9984623193740845e-01</leafValues></_></weakClassifiers></stage21>
</opencv_storage>
