<?xml version="1.0"?>
<opencv_storage>
<stage17>
  <maxWeakCount>5</maxWeakCount>
  <stageThreshold>-3.8181647658348083e-02</stageThreshold>
  <weakClassifiers>
    <_>
      <internalNodes>
        0 -1 7040 -2.7651635464280844e-03</internalNodes>
      <leafValues>
        -3.5294118523597717e-01 6.0465115308761597e-01</leafValues></_>
    <_>
      <internalNodes>
        0 -1 63021 -6.0418685898184776e-03</internalNodes>
      <leafValues>
        7.7848035097122192e-01 -2.7027189731597900e-01</leafValues></_>
    <_>
      <internalNodes>
        0 -1 71756 1.9187707221135497e-04</internalNodes>
      <leafValues>
        -2.9193025827407837e-01 9.5572799444198608e-01</leafValues></_>
    <_>
      <internalNodes>
        0 -1 62321 -2.0628579659387469e-04</internalNodes>
      <leafValues>
        -6.5703916549682617e-01 4.3020120263099670e-01</leafValues></_>
    <_>
      <internalNodes>
        0 -1 5066 3.4812510013580322e-02</internalNodes>
      <leafValues>
        -4.7234377264976501e-01 6.3658297061920166e-01</leafValues></_></weakClassifiers></stage17>
</opencv_storage>
