<?xml version="1.0"?>
<opencv_storage>
<stage28>
  <maxWeakCount>5</maxWeakCount>
  <stageThreshold>3.3514830470085144e-01</stageThreshold>
  <weakClassifiers>
    <_>
      <internalNodes>
        0 -1 54533 -1.0742151644080877e-03</internalNodes>
      <leafValues>
        -4.6153846383094788e-01 5.5319148302078247e-01</leafValues></_>
    <_>
      <internalNodes>
        0 -1 34568 2.4748463183641434e-03</internalNodes>
      <leafValues>
        -2.9357045888900757e-01 7.4332499504089355e-01</leafValues></_>
    <_>
      <internalNodes>
        0 -1 30576 -1.1927031911909580e-02</internalNodes>
      <leafValues>
        -2.6344412565231323e-01 7.4118477106094360e-01</leafValues></_>
    <_>
      <internalNodes>
        0 -1 53889 4.1935015469789505e-03</internalNodes>
      <leafValues>
        -3.6064955592155457e-01 6.4974743127822876e-01</leafValues></_>
    <_>
      <internalNodes>
        0 -1 70342 4.9417014233767986e-03</internalNodes>
      <leafValues>
        -3.0500793457031250e-01 8.8710463047027588e-01</leafValues></_></weakClassifiers></stage28>
</opencv_storage>
