<?xml version="1.0"?>
<opencv_storage>
<stage19>
  <maxWeakCount>5</maxWeakCount>
  <stageThreshold>-3.2541427016258240e-01</stageThreshold>
  <weakClassifiers>
    <_>
      <internalNodes>
        0 -1 53670 -1.6947414260357618e-03</internalNodes>
      <leafValues>
        -5.0000000000000000e-01 5.8695650100708008e-01</leafValues></_>
    <_>
      <internalNodes>
        0 -1 68068 -5.3436099551618099e-04</internalNodes>
      <leafValues>
        -3.9650180935859680e-01 5.7775330543518066e-01</leafValues></_>
    <_>
      <internalNodes>
        0 -1 68714 7.8537315130233765e-03</internalNodes>
      <leafValues>
        3.3060657978057861e-01 -8.6058306694030762e-01</leafValues></_>
    <_>
      <internalNodes>
        0 -1 53352 -2.0421959459781647e-02</internalNodes>
      <leafValues>
        1. -3.1025478243827820e-01</leafValues></_>
    <_>
      <internalNodes>
        0 -1 43107 6.7054472863674164e-02</internalNodes>
      <leafValues>
        -3.1928622722625732e-01 9.1136670112609863e-01</leafValues></_></weakClassifiers></stage19>
</opencv_storage>
