<?xml version="1.0"?>
<opencv_storage>
<stage20>
  <maxWeakCount>5</maxWeakCount>
  <stageThreshold>-5.6976896524429321e-01</stageThreshold>
  <weakClassifiers>
    <_>
      <internalNodes>
        0 -1 27929 1.6762276645749807e-03</internalNodes>
      <leafValues>
        5.5102038383483887e-01 -6.3636362552642822e-01</leafValues></_>
    <_>
      <internalNodes>
        0 -1 13643 1.7115212976932526e-03</internalNodes>
      <leafValues>
        4.5706662535667419e-01 -5.5251282453536987e-01</leafValues></_>
    <_>
      <internalNodes>
        0 -1 20819 -9.9389981478452682e-03</internalNodes>
      <leafValues>
        -5.4570263624191284e-01 5.1040804386138916e-01</leafValues></_>
    <_>
      <internalNodes>
        0 -1 61538 -3.7919089198112488e-02</internalNodes>
      <leafValues>
        5.4592919349670410e-01 -5.3187906742095947e-01</leafValues></_>
    <_>
      <internalNodes>
        0 -1 68230 -4.2559331632219255e-04</internalNodes>
      <leafValues>
        -5.6850314140319824e-01 4.7345286607742310e-01</leafValues></_></weakClassifiers></stage20>
</opencv_storage>
