<?xml version="1.0"?>
<opencv_storage>
<stage13>
  <maxWeakCount>5</maxWeakCount>
  <stageThreshold>-2.0409028232097626e-01</stageThreshold>
  <weakClassifiers>
    <_>
      <internalNodes>
        0 -1 49939 4.1962573304772377e-03</internalNodes>
      <leafValues>
        5.0000000000000000e-01 -7.5000000000000000e-01</leafValues></_>
    <_>
      <internalNodes>
        0 -1 39468 -9.6006542444229126e-03</internalNodes>
      <leafValues>
        7.6346176862716675e-01 -2.9218745231628418e-01</leafValues></_>
    <_>
      <internalNodes>
        0 -1 11025 2.0281451940536499e-01</internalNodes>
      <leafValues>
        -3.3060497045516968e-01 6.0519593954086304e-01</leafValues></_>
    <_>
      <internalNodes>
        0 -1 9626 -1.9416748546063900e-03</internalNodes>
      <leafValues>
        -7.8471601009368896e-01 3.4447044134140015e-01</leafValues></_>
    <_>
      <internalNodes>
        0 -1 49123 1.8605861812829971e-02</internalNodes>
      <leafValues>
        -2.3238275945186615e-01 1.</leafValues></_></weakClassifiers></stage13>
</opencv_storage>
